12 100
system -0.00053622725 0.00023643136 0.0051033497 0.009009273 -0.0093029495 -0.007116809 0.0064588725 0.008972988 -0.005015428 -0.0037633716 0.0073805046 -0.0015334714 -0.0045366134 0.006554052 -0.0048601604 -0.0018160177 0.0028765798 0.0009918738 -0.008285215 -0.009448818 0.007311766 0.005070262 0.0067576934 0.00076286553 0.0063508903 -0.0034053659 -0.0009464014 0.0057685734 -0.0075216377 -0.0039361035 -0.007511582 -0.00093004224 0.009538119 -0.007319167 -0.0023337686 -0.0019377411 0.008077437 -0.005930896 4.516244e-05 -0.004753734 -0.009603551 0.005007293 -0.008759585 -0.0043918253 -3.5099984e-05 -0.00029618145 -0.00766124 0.009614743 0.004982058 0.009233143 -0.008157917 0.004495798 -0.004137076 0.0008245361 0.00849862 -0.0044621765 0.0045175003 -0.00678696 -0.0035484887 0.009398508 -0.0015776526 0.00032137157 -0.00414063 -0.007682688 -0.0015080082 0.0024697948 -0.00088802696 0.0055336617 -0.002742977 0.0022600652 0.0054557943 0.008345953 -0.0014537406 -0.009208143 0.0043705525 0.00057178497 0.007441908 -0.00081328274 -0.0026384138 -0.008753009 -0.0008565569 0.002826563 0.005401429 0.0070526563 -0.0057031214 0.0018588197 0.0060888636 -0.004798051 -0.0031072604 0.0067976294 0.0016314756 0.00018991709 0.0034736372 0.00021777749 0.009618826 0.005060604 -0.00891739 -0.0070415605 0.0009014559 0.006392534
graph -0.0086196875 0.003665738 0.0051898835 0.0057419385 0.0074669183 -0.0061676754 0.0011056137 0.0060472824 -0.0028400505 -0.0061735227 -0.000410223 -0.0083689485 -0.0056000124 0.007104539 0.0033525396 0.0072256695 0.0068002474 0.007530742 -0.0037891543 -0.00056180597 0.0023483764 -0.0045190323 0.008388732 -0.009858164 0.006764641 0.0029144168 -0.0049328315 0.0043981876 -0.0017395747 0.0067113843 0.00996485 -0.0043624435 -0.0005993378 -0.0056956373 0.0038508223 0.0027866268 0.0068910765 0.0061010956 0.009538497 0.009273417 0.007898068 -0.006989504 -0.009155865 -0.0003557527 -0.0030998408 0.007894317 0.005938574 -0.0015456629 0.0015109634 0.0017900408 0.007817571 -0.0095101865 -0.00020553112 0.0034691966 -0.0009389722 0.008381772 0.009010783 0.0065365066 -0.000711621 0.007710404 -0.008534335 0.0032071066 -0.004637997 -0.005088955 0.0035896183 0.0053703394 0.0077695143 -0.0057665063 0.007433361 0.0066254963 -0.0037098003 -0.008745641 0.0054374672 0.0065097557 -0.00078755023 -0.006709856 -0.0070859254 -0.0024970602 0.0051432536 -0.0036652375 -0.00937006 0.0038267397 0.004884479 -0.0064285635 0.0012085581 -0.002074877 2.4403334e-05 -0.009883509 0.0026920044 -0.0047501065 0.0010876465 -0.0015762246 0.002196673 -0.007881576 -0.002717184 0.0026631986 0.005346682 -0.0023915148 -0.009510094 0.004505879
trees 9.456396e-05 0.0030773198 -0.006812645 -0.0013754654 0.007668581 0.0073464094 -0.0036732971 0.0026427018 -0.00831713 0.006205486 -0.0046373224 -0.0031641065 0.009311357 0.0008733857 0.007490703 -0.0060740625 0.005160507 0.009922823 -0.0084573915 -0.0051356913 -0.007064837 -0.0048626517 -0.0037785638 -0.008536199 0.007955606 -0.004843938 0.008423613 0.0052625705 -0.006550026 0.0039578713 0.0054701497 -0.007426536 -0.0074057197 -0.0024752307 -0.008625725 -0.0015815723 -0.00040343284 0.0032996845 0.0014418805 -0.00088142155 -0.005594058 0.0017303658 -0.0008973718 0.006793691 0.00397359 0.0045294715 0.0014343059 -0.0026998555 -0.0043668128 -0.0010320747 0.0014370275 -0.0026460087 -0.007073783 -0.007805307 -0.009121787 -0.0059351693 -0.0018474245 -0.0043238713 -0.0064606704 -0.0037173224 0.0042891586 -0.0037390434 0.008378175 0.0015339935 -0.0072423196 0.0094337985 0.0076312125 0.005493282 -0.0068488456 0.005822679 0.004009093 0.0051853694 0.0042559016 0.0019397545 -0.0031701624 0.008353845 0.00961218 0.003792603 -0.002836995 7.1275235e-06 0.0012188185 -0.008458325 -0.008223945 -0.00023101569 0.0012372875 -0.0057433806 -0.0047252737 -0.0073460746 0.008328616 0.00012129784 -0.0045093987 0.0057017053 0.009180015 -0.004099872 0.007964682 0.005375434 0.005879123 0.0005125904 0.008213084 -0.0070190406
user -0.008243976 0.0092982175 -0.00019883178 -0.001966224 0.0046026125 -0.004098241 0.002741841 0.00694249 0.0060647577 -0.0075134244 0.009384548 0.004671078 0.0039670253 -0.006244334 0.008460378 -0.0021475316 0.008827321 -0.005365455 -0.008128209 0.006822414 0.001671247 -0.0021977755 0.009513901 0.009493717 -0.00977354 0.0025048363 0.006155136 0.0038749226 0.0020231074 0.0004297551 0.0006755149 -0.003819734 -0.0071387477 -0.0020857744 0.003922672 0.008821388 0.009260761 -0.0059755677 -0.009403811 0.009766435 0.0034311758 0.0051681376 0.006281367 -0.0028049033 0.007322583 0.0028303766 0.0028700498 -0.0023791513 -0.0031282043 -0.0023682013 0.0042768745 7.808367e-05 -0.009586265 -0.009664092 -0.0061474317 -0.00013067652 0.0019958965 0.0094319945 0.0055869417 -0.0042908685 0.0002766642 0.0049665086 0.007701729 -0.0011444706 0.0043214113 -0.0058156233 -0.000806561 0.008097469 -0.0023595393 -0.009665874 0.0057808654 -0.003927708 -0.0012244319 0.009979865 -0.0022559795 -0.0047581927 -0.0053285286 0.006979481 -0.0057078465 0.0021146915 -0.0052546123 0.006121486 0.004357949 0.0026095302 -0.001491907 -0.0027474174 0.008991138 0.0052170185 -0.0021602784 -0.009469213 -0.007428286 -0.0010614037 -0.0007941263 -0.0025604777 0.00968557 -0.0004605082 0.005872903 -0.0074473293 -0.0025033513 -0.005550342
minors -0.007139015 0.0012410306 -0.0071767163 -0.002244618 0.0037193035 0.005833124 0.0011981833 0.0021027315 -0.0041103913 0.0072253332 -0.0063070417 0.004647216 -0.008219973 0.002036468 -0.004977052 -0.004247688 -0.0031089843 0.0056552086 0.005798401 -0.004974649 0.0007733309 -0.008495778 0.0078098057 0.009257291 -0.0027423275 0.0008002233 0.0007466519 0.005477885 -0.008606079 0.00058445573 0.0068694223 0.0022315944 0.0011246764 -0.009322155 0.008482367 -0.0062641273 -0.0029923737 0.003493787 -0.0007726276 0.0014112913 0.0017819917 -0.0068288995 -0.009724812 0.009040585 0.0061980546 -0.0069129276 0.0034034825 0.00020606398 0.0047537456 -0.007119943 0.004026954 0.0043474343 0.009957369 -0.00447374 -0.0013892639 -0.0073173214 -0.009697829 -0.009080257 -0.0010227549 -0.00650329 0.004849728 -0.0061640264 0.0025191857 0.0007394409 -0.003392154 -0.0009792233 0.009979125 0.009145887 -0.0044618296 0.009083027 -0.005641763 0.005930922 -0.0030972182 0.0034317516 0.0030172265 0.006900461 -0.0023738837 0.008775037 0.007589428 -0.009547646 -0.008008209 -0.0076378966 0.0029232574 -0.0027947223 -0.0069295205 -0.008128264 0.00830918 0.0019904887 -0.009328017 -0.0047927164 0.0031367384 -0.004713206 0.005280843 -0.0042334413 0.002641796 -0.008045687 0.006209886 0.004818889 0.0007871926 0.0030134476
eps -0.0087274825 0.0021301615 -0.0008735442 -0.009319088 -0.009428143 -0.001410718 0.0044324086 0.003704071 -0.006498693 -0.0068730675 -0.004999412 -0.0022868442 -0.0072502876 -0.009603318 -0.0027436293 -0.008362841 -0.006038876 -0.005670929 -0.0023441375 -0.0017069972 -0.008956999 -0.0007351994 0.008152506 0.0076904297 -0.007206116 -0.0036668312 0.003118552 -0.0095707225 0.0014764392 0.0065244664 0.0057464195 -0.008763062 -0.004517144 -0.008140161 4.5956374e-05 0.009263634 0.0059733056 0.005067308 0.0050610625 -0.0032429171 0.009552184 -0.0073564244 -0.0072703874 -0.002265389 -0.00077856064 -0.0032161034 -0.0005925858 0.007488823 -0.0006975186 -0.0016249407 0.0027443992 -0.008359101 0.007855804 0.008536104 -0.009584087 0.0024462664 0.009904971 -0.0076658037 -0.0069669187 -0.007736517 0.008395923 -0.0006813359 0.009144409 -0.008158221 0.0037430846 0.0026350426 0.0007427132 0.002327676 -0.007469094 -0.0093583735 0.0023545765 0.006148455 0.007985689 0.0057358947 -0.00077733636 0.008306164 -0.009336314 0.0034061326 0.00026675343 0.0038572443 0.0073857834 -0.006725167 0.0055844807 -0.009522225 -0.00080445886 -0.008688737 -0.005098673 0.0092892265 -0.0018582619 0.0029144264 0.009071279 0.008938133 -0.008208435 -0.0030123137 0.009886606 0.005104431 -0.0015880871 -0.0086920215 0.0029615164 -0.0066758976
time 0.0081322715 -0.004457334 -0.0010683573 0.0010063648 -0.00019111396 0.0011481774 0.0061138608 -2.027154e-05 -0.0032459653 -0.0015107286 0.005897299 0.0015141022 -0.000724262 0.009333247 -0.0049212836 -0.00083840964 0.009175411 0.0067494274 0.001502856 -0.008882561 0.001148746 -0.0022882556 0.009368237 0.0012099278 0.0014900636 0.00240641 -0.0018360066 -0.004999634 0.0002324295 -0.0020141804 0.006600933 0.008940123 -0.0006747544 0.0029770148 -0.0061076544 0.0016993248 -0.0069262325 -0.008694027 -0.005900203 -0.008956475 0.007277595 -0.0057720314 0.008276352 -0.0072435453 0.003421675 0.009674999 -0.007785448 -0.009945057 -0.0043291464 -0.0026831306 -0.00027128935 -0.008831551 -0.008617558 0.0028002106 -0.008206407 -0.009069337 -0.0023404658 -0.008631808 -0.00705665 -0.008401151 -0.0003013289 -0.0045642983 0.0066271746 0.0015271604 -0.0033414757 0.006108972 -0.006013285 -0.0046561696 -0.007207509 -0.00433658 -0.00180933 0.006489643 -0.002770393 0.0049189674 0.0069044423 -0.0074637057 0.00456485 0.0061269784 -0.0029544747 0.006625022 0.0061258795 -0.006443485 -0.0067645516 0.0025389588 -0.0016238189 -0.006065128 0.009499209 -0.0051301466 -0.006554097 -0.000119885204 -0.002701428 0.0004444003 -0.0035374581 -0.0004193306 -0.00070861576 0.00082282064 0.008194817 -0.0057367072 -0.001659528 0.0055716075
response 0.008167782 -0.004443393 0.008985296 0.008253743 -0.004435826 0.00030172104 0.0042739348 -0.0039251153 -0.005560278 -0.00651373 -0.0006694907 -0.0002962549 0.004463793 -0.0024746335 -0.00017220205 0.0024630101 0.004868632 -3.2281372e-05 -0.006339004 -0.009261829 2.660919e-05 0.006662076 0.0014665278 -0.008966586 -0.007938814 0.006551965 -0.0037862053 0.00625588 -0.006680675 0.008479552 -0.006515764 0.0032883417 -0.0010562213 -0.006786159 -0.0032877969 -0.0011601112 -0.0054701385 -0.0012113646 -0.007564127 0.0026475783 0.009070706 -0.002376443 -0.0009770003 0.0035135448 0.008664962 -0.00592204 -0.0068880147 -0.002932625 0.009147445 0.00086698896 -0.008678388 -0.0014462654 0.009478365 -0.007549049 -0.0053578136 0.009315805 -0.008974488 0.0038260145 0.00066673977 0.006660726 0.008311869 -0.0028500303 -0.00399085 0.0088979155 0.0020886427 0.0062485677 -0.009446949 0.009589061 -0.0013480331 -0.006053309 0.0029933562 -0.0004555752 0.0047057862 -0.002282812 -0.004137695 0.0022777468 0.008354854 -0.0049963617 0.0026688774 -0.007989948 -0.006772868 -0.00046699488 -0.008767222 0.0027909533 0.0015979372 -0.0023201057 0.0050030975 0.009749489 0.008455317 -0.0018798121 0.0020574643 -0.0040027914 -0.008241184 0.006279052 -0.0019481656 -0.0006669599 -0.0017712543 -0.0045358827 0.004062841 -0.0042707347
survey -0.0095785465 0.008943115 0.0041650687 0.009234735 0.0066435025 0.0029247368 0.00980402 -0.004424641 -0.006803311 0.0042273807 0.003729 -0.005664611 0.00970476 -0.0035583067 0.009549406 0.0008347261 -0.0063384566 -0.001977117 -0.0073770545 -0.002979523 0.0010416972 0.009482687 0.009355848 -0.0065958775 0.003475151 0.0022755705 -0.0024893521 -0.009229172 0.0010271263 -0.008165706 0.006320189 -0.0058000805 0.005535439 0.009833723 -0.00016000033 0.0045284927 -0.0018094003 0.007360761 0.003940097 -0.009010324 -0.002398504 0.003628769 -9.9568366e-05 -0.0012012708 -0.0010554385 -0.0016716016 0.00060495257 0.0041650953 -0.0042527914 -0.0038336217 -5.2816868e-05 0.00026935578 -0.00016880632 -0.0047855065 0.0043134023 -0.0021719194 0.0021035396 0.000666523 0.005969677 -0.006842381 -0.00681571 -0.0044762576 0.009435829 -0.0015918827 -0.009429242 -0.0005450416 -0.004448923 0.0060000787 -0.009583686 0.002859001 -0.009252832 0.0012498009 0.005999198 0.0073973476 -0.0076214634 -0.0060530235 -0.006838441 -0.00791834 -0.0094990805 -0.002125497 -0.0008359325 -0.0072562015 0.0067870365 0.0011196196 0.0058288667 0.0014728665 0.0007893658 -0.0073681297 -0.002176658 0.0043210792 -0.0050853146 0.0011307895 0.002883364 -0.001536361 0.009932295 0.008349635 0.0024156666 0.0071182456 0.0058914376 -0.005580617
computer -0.0051577436 -0.0066702785 -0.0077790986 0.008313146 -0.001982919 -0.006856959 -0.004155598 0.0051456233 -0.0028699716 -0.0037507515 0.0016218971 -0.002777102 -0.0015848217 0.0010748045 -0.0029788115 0.008521762 0.003912073 -0.0099617615 0.006261422 -0.00675622 0.00076965673 0.0044055167 -0.0051048603 -0.002111284 0.008097835 -0.004245028 -0.007638484 0.009260607 -0.0021561245 -0.004720806 0.008573295 0.0042845854 0.0043260953 0.009287216 -0.008455541 0.00525685 0.002039945 0.004189499 0.0016983944 0.0044654333 0.004487596 0.006106299 -0.0032030295 -0.0045770598 -0.00042664065 0.0025344712 -0.0032641168 0.006059481 0.0041553397 0.007766852 0.0025700203 0.008119046 -0.0013876136 0.008080279 0.003718098 -0.008049667 -0.0039347596 -0.0024725979 0.004894468 -0.0008724129 -0.0028317324 0.007835987 0.009325614 -0.0016153983 -0.0051607513 -0.0047031273 -0.0048474614 -0.009605621 0.0013724195 -0.0042261453 0.0025274444 0.0056161173 -0.004067089 -0.009599375 0.0015471478 -0.0067020725 0.0024959005 -0.0037817324 0.0070804814 0.000640407 0.0035619752 -0.002739931 -0.0017110452 0.0076550203 0.0014080878 -0.0058521517 -0.007836777 0.0012330461 0.0064565097 0.005557967 -0.008979663 0.008594665 0.004048156 0.0074717794 0.009749171 -0.0072917016 -0.009042594 0.0058376994 0.009393946 0.003507946
interface 0.0070871473 -0.001568377 0.007946138 -0.009487443 -0.008029638 -0.006642288 -0.0040041055 0.0049910326 -0.0038136265 -0.008321583 0.008413221 -0.003747186 0.008608982 -0.004896269 0.0039189286 0.0049236105 0.0023943025 -0.002821364 0.0028496366 -0.008257106 -0.0027652925 -0.0025905666 0.0072491053 -0.0034629775 -0.006599221 0.00433994 -0.00047540365 -0.0035954376 0.006882413 0.0038715173 -0.0038985382 0.0007723802 0.009143883 0.0077564763 0.006360742 0.004669317 0.002385856 -0.0018414279 -0.0063720327 -0.00029998214 -0.0015642056 -0.0005705892 -0.0062630433 0.007433052 -0.0065910234 -0.007238678 -0.002757578 -0.0015144736 -0.00763539 0.0006995603 -0.005325317 -0.0012739648 -0.0073665027 0.0019612678 0.0032734126 -2.4741203e-05 -0.005449074 -0.0017256952 0.007086603 0.003735759 -0.008881799 -0.0034116022 0.0023567537 0.0021376414 -0.009464837 0.0045697815 -0.008658245 -0.0073883547 0.003483238 -0.0034728223 0.003565622 0.008895034 -0.0035753327 0.009319733 0.0017111654 0.009846227 0.0057051554 -0.009149773 -0.003326972 0.006530668 0.0056031067 0.008705786 0.0069263605 0.008040851 -0.009823117 0.004297507 -0.005030869 0.0035132254 0.0060579 0.0043924116 0.007510045 0.0014993458 -0.001264251 0.0057697673 -0.005636835 3.71079e-05 0.009455607 -0.0054809595 0.0038159827 -0.008113069
human 0.009770293 0.008165114 0.0012809718 0.0050975787 0.0014081288 -0.0064551616 -0.001428051 0.0064491653 -0.004617306 -0.0039930656 0.0049244044 0.0027130984 -0.0018479753 -0.0028769434 0.0060107317 -0.0057167388 -0.0032367026 -0.006487825 -0.0042346325 -0.008580995 -0.004469789 -0.008511229 0.0014037776 -0.0086181965 -0.009916656 -0.008201625 -0.006772666 0.006680585 0.0037845564 0.00035616636 -0.0029579818 -0.0074283206 0.0005334187 0.0004998922 0.00019561886 0.00085259555 0.0007863307 -6.81603e-05 -0.008007054 -0.0058702733 -0.008382912 -0.0013120425 0.001820637 0.007417128 -0.001963427 -0.0023252917 0.009487155 7.970452e-05 -0.0024045217 0.008604847 0.0026870037 -0.0053439722 0.006588106 0.0045101536 -0.007054467 -0.000323174 0.0008344865 0.0057473574 -0.0017176545 -0.00280653 0.0017484308 0.0008471715 0.0011928272 -0.0026342822 -0.0059857843 0.007322984 0.0075873756 0.0082963575 -0.008598847 0.0026364254 -0.0035599626 0.009620404 0.0029037679 0.0046411133 0.0023856151 0.006608478 -0.0057432903 0.007894413 -0.002410922 -0.0045618857 -0.0020609903 0.009733558 -0.0068565905 -0.00219172 0.0070009995 -5.5749417e-05 -0.006294967 -0.0063935257 0.008940395 0.006429576 0.004773593 -0.0032620477 -0.00926762 0.0037868882 0.0071605504 -0.0056328895 -0.007865013 -0.00297274 -0.0049318983 -0.0023151112
